Language model created by QuickLM on Mon Nov  6 17:20:10 EST 2023
Copyright (c) 1996-2010 Carnegie Mellon University and Alexander I. Rudnicky

The model is in standard ARPA format, designed by Doug Paul while he was at MITRE.

The code that was used to produce this language model is available in Open Source.
Please visit http://www.speech.cs.cmu.edu/tools/ for more information

The (fixed) discount mass is 0.5. The backoffs are computed using the ratio method.
This model based on a corpus of 33 sentences and 54 words

\data\
ngram 1=54
ngram 2=85
ngram 3=61

\1-grams:
-0.9031 </s> -0.3010
-0.9031 <s> -0.2412
-2.4216 AANA -0.2994
-2.4216 ANA -0.2994
-2.4216 BO -0.2994
-2.4216 BOEE -0.2430
-2.1206 BOI -0.2430
-2.1206 BOOLOOK -0.2430
-2.4216 BULUK -0.2430
-1.9445 CAMBA -0.2430
-2.4216 DAANA -0.2961
-2.1206 DETA -0.2977
-2.4216 DETAA -0.2994
-2.4216 EE -0.2430
-2.4216 EENA -0.2994
-2.4216 FAETO -0.2430
-2.4216 FETO -0.2430
-2.4216 FUA -0.2994
-2.4216 FUNI -0.2430
-2.4216 GEEOO -0.2977
-2.4216 GEU -0.2977
-2.4216 HEETOO -0.2430
-2.4216 HEETOW -0.2430
-2.4216 HITU -0.2430
-1.9445 INA -0.2961
-2.1206 LILO -0.2430
-2.4216 MAANEK -0.2430
-2.4216 MANEK -0.2430
-2.1206 NDANA -0.2961
-2.4216 NEETA -0.2961
-2.4216 NGGEU -0.2994
-2.1206 NITA -0.2961
-2.4216 NUSA -0.2994
-2.4216 SAABOAAK -0.2430
-2.4216 SAAMBAK -0.2430
-2.4216 SAANDU -0.2430
-2.4216 SAARI -0.2994
-2.4216 SABOAK -0.2430
-2.4216 SAIBOAK -0.2430
-2.4216 SAMBAK -0.2430
-2.4216 SANDOO -0.2430
-1.9445 SANDU -0.2393
-2.4216 SANGGU -0.2430
-2.4216 SANGU -0.2430
-2.4216 SAREE -0.2994
-2.4216 SARI -0.2961
-2.4216 SEBOAK -0.2430
-2.4216 SENDU -0.2430
-2.4216 SERI -0.2994
-2.4216 SUNDU -0.2994
-1.9445 TA -0.2961
-2.4216 TANGU -0.2430
-2.4216 TOOTOO -0.2977
-2.4216 TUTU -0.2977

\2-grams:
-1.8195 <s> AANA 0.0000
-1.8195 <s> ANA 0.0000
-1.8195 <s> DAANA 0.0000
-1.5185 <s> DETA 0.0000
-1.8195 <s> DETAA 0.0000
-1.8195 <s> EENA 0.0000
-1.8195 <s> GEEOO 0.0000
-1.8195 <s> GEU 0.0000
-1.3424 <s> INA 0.0000
-1.8195 <s> MAANEK 0.0000
-1.8195 <s> MANEK 0.0000
-1.5185 <s> NDANA 0.0000
-1.8195 <s> NGGEU 0.0000
-1.8195 <s> NUSA 0.0000
-1.8195 <s> SAABOAAK 0.0000
-1.8195 <s> SAAMBAK 0.0000
-1.8195 <s> SAARI 0.0000
-1.8195 <s> SABOAK 0.0000
-1.8195 <s> SAIBOAK 0.0000
-1.8195 <s> SAMBAK 0.0000
-1.5185 <s> SANDU -0.1249
-1.8195 <s> SAREE 0.0000
-1.8195 <s> SARI 0.0000
-1.8195 <s> SEBOAK 0.0000
-1.8195 <s> SERI 0.0000
-1.8195 <s> SUNDU 0.0000
-1.8195 <s> TOOTOO 0.0000
-1.8195 <s> TUTU 0.0000
-0.3010 AANA FAETO 0.0000
-0.3010 ANA FETO 0.0000
-0.3010 BO EE 0.0000
-0.3010 BOEE </s> -0.3010
-0.3010 BOI </s> -0.3010
-0.3010 BOOLOOK </s> -0.3010
-0.3010 BULUK </s> -0.3010
-0.3010 CAMBA </s> -0.3010
-0.3010 DAANA TA -0.1249
-0.6021 DETA HEETOO 0.0000
-0.6021 DETA HITU 0.0000
-0.3010 DETAA HEETOW 0.0000
-0.3010 EE </s> -0.3010
-0.3010 EENA BOEE 0.0000
-0.3010 FAETO </s> -0.3010
-0.3010 FETO </s> -0.3010
-0.3010 FUA FUNI 0.0000
-0.3010 FUNI </s> -0.3010
-0.3010 GEEOO BOOLOOK 0.0000
-0.3010 GEU BOOLOOK 0.0000
-0.3010 HEETOO </s> -0.3010
-0.3010 HEETOW </s> -0.3010
-0.3010 HITU </s> -0.3010
-0.7782 INA BO 0.0000
-0.4771 INA BOI 0.0000
-0.3010 LILO </s> -0.3010
-0.3010 MAANEK </s> -0.3010
-0.3010 MANEK </s> -0.3010
-0.3010 NDANA TA 0.0000
-0.3010 NEETA CAMBA 0.0000
-0.3010 NGGEU BULUK 0.0000
-0.3010 NITA CAMBA 0.0000
-0.3010 NUSA FUA 0.0000
-0.3010 SAABOAAK </s> -0.3010
-0.3010 SAAMBAK </s> -0.3010
-0.3010 SAANDU </s> -0.3010
-0.3010 SAARI SAANDU 0.0000
-0.3010 SABOAK </s> -0.3010
-0.3010 SAIBOAK </s> -0.3010
-0.3010 SAMBAK </s> -0.3010
-0.3010 SANDOO </s> -0.3010
-0.7782 SANDU </s> -0.3010
-0.7782 SANDU SANGGU 0.0000
-0.7782 SANDU SANGU 0.0000
-0.3010 SANGGU </s> -0.3010
-0.3010 SANGU </s> -0.3010
-0.3010 SAREE SANDOO 0.0000
-0.3010 SARI SANDU -0.2218
-0.3010 SEBOAK </s> -0.3010
-0.3010 SENDU </s> -0.3010
-0.3010 SERI SENDU 0.0000
-0.3010 SUNDU TANGU 0.0000
-0.7782 TA NEETA 0.0000
-0.4771 TA NITA 0.0000
-0.3010 TANGU </s> -0.3010
-0.3010 TOOTOO LILO 0.0000
-0.3010 TUTU LILO 0.0000

\3-grams:
-0.3010 <s> AANA FAETO
-0.3010 <s> ANA FETO
-0.3010 <s> DAANA TA
-0.6021 <s> DETA HEETOO
-0.6021 <s> DETA HITU
-0.3010 <s> DETAA HEETOW
-0.3010 <s> EENA BOEE
-0.3010 <s> GEEOO BOOLOOK
-0.3010 <s> GEU BOOLOOK
-0.7782 <s> INA BO
-0.4771 <s> INA BOI
-0.3010 <s> MAANEK </s>
-0.3010 <s> MANEK </s>
-0.3010 <s> NDANA TA
-0.3010 <s> NGGEU BULUK
-0.3010 <s> NUSA FUA
-0.3010 <s> SAABOAAK </s>
-0.3010 <s> SAAMBAK </s>
-0.3010 <s> SAARI SAANDU
-0.3010 <s> SABOAK </s>
-0.3010 <s> SAIBOAK </s>
-0.3010 <s> SAMBAK </s>
-0.6021 <s> SANDU SANGGU
-0.6021 <s> SANDU SANGU
-0.3010 <s> SAREE SANDOO
-0.3010 <s> SARI SANDU
-0.3010 <s> SEBOAK </s>
-0.3010 <s> SERI SENDU
-0.3010 <s> SUNDU TANGU
-0.3010 <s> TOOTOO LILO
-0.3010 <s> TUTU LILO
-0.3010 AANA FAETO </s>
-0.3010 ANA FETO </s>
-0.3010 BO EE </s>
-0.3010 DAANA TA NITA
-0.3010 DETA HEETOO </s>
-0.3010 DETA HITU </s>
-0.3010 DETAA HEETOW </s>
-0.3010 EENA BOEE </s>
-0.3010 FUA FUNI </s>
-0.3010 GEEOO BOOLOOK </s>
-0.3010 GEU BOOLOOK </s>
-0.3010 INA BO EE
-0.3010 INA BOI </s>
-0.6021 NDANA TA NEETA
-0.6021 NDANA TA NITA
-0.3010 NEETA CAMBA </s>
-0.3010 NGGEU BULUK </s>
-0.3010 NITA CAMBA </s>
-0.3010 NUSA FUA FUNI
-0.3010 SAARI SAANDU </s>
-0.3010 SANDU SANGGU </s>
-0.3010 SANDU SANGU </s>
-0.3010 SAREE SANDOO </s>
-0.3010 SARI SANDU </s>
-0.3010 SERI SENDU </s>
-0.3010 SUNDU TANGU </s>
-0.3010 TA NEETA CAMBA
-0.3010 TA NITA CAMBA
-0.3010 TOOTOO LILO </s>
-0.3010 TUTU LILO </s>

\end\
