Language model created by QuickLM on Mon Nov  6 16:04:02 EST 2023
Copyright (c) 1996-2010 Carnegie Mellon University and Alexander I. Rudnicky

The model is in standard ARPA format, designed by Doug Paul while he was at MITRE.

The code that was used to produce this language model is available in Open Source.
Please visit http://www.speech.cs.cmu.edu/tools/ for more information

The (fixed) discount mass is 0.5. The backoffs are computed using the ratio method.
This model based on a corpus of 24 sentences and 41 words

\data\
ngram 1=41
ngram 2=64
ngram 3=49

\1-grams:
-0.9208 </s> -0.3010
-0.9208 <s> -0.2430
-2.3010 ANA -0.2989
-2.0000 BO -0.2967
-2.3010 BOI -0.2455
-2.3010 BOOLOOK -0.2455
-2.0000 CAMBA -0.2455
-2.0000 DETA -0.2967
-2.3010 EE -0.2455
-2.3010 FETO -0.2455
-2.3010 FOOA -0.2967
-2.0000 FUA -0.2945
-2.0000 FUNEE -0.2455
-2.3010 FUNI -0.2455
-2.3010 HEETOO -0.2455
-2.3010 HITU -0.2455
-2.3010 I -0.2455
-1.8239 INA -0.2945
-2.0000 LILO -0.2455
-2.3010 MANEK -0.2455
-2.0000 NDANA -0.2967
-2.3010 NEETA -0.2967
-2.3010 NGEOO -0.2989
-2.3010 NITA -0.2967
-2.3010 NOOSA -0.2989
-2.0000 NUSA -0.2967
-2.3010 SABOAK -0.2455
-2.3010 SAIBOAK -0.2455
-2.3010 SAMBAK -0.2455
-2.3010 SANDOO -0.2455
-1.8239 SANDU -0.2405
-2.3010 SANGGU -0.2455
-2.3010 SANGU -0.2455
-2.3010 SAREE -0.2989
-2.3010 SARI -0.2945
-2.3010 SEBOAK -0.2455
-2.3010 SENDU -0.2455
-2.3010 SERI -0.2989
-2.0000 TA -0.2967
-2.3010 TOOTOO -0.2967
-2.3010 TUTU -0.2967

\2-grams:
-1.6812 <s> ANA 0.0000
-1.3802 <s> DETA 0.0000
-1.2041 <s> INA 0.0000
-1.6812 <s> MANEK 0.0000
-1.3802 <s> NDANA 0.0000
-1.6812 <s> NGEOO 0.0000
-1.6812 <s> NOOSA 0.0000
-1.3802 <s> NUSA 0.0000
-1.6812 <s> SABOAK 0.0000
-1.6812 <s> SAIBOAK 0.0000
-1.6812 <s> SAMBAK 0.0000
-1.3802 <s> SANDU -0.1249
-1.6812 <s> SAREE 0.0000
-1.6812 <s> SARI 0.0000
-1.6812 <s> SEBOAK 0.0000
-1.6812 <s> SERI 0.0000
-1.6812 <s> TOOTOO 0.0000
-1.6812 <s> TUTU 0.0000
-0.3010 ANA FETO 0.0000
-0.6021 BO EE 0.0000
-0.6021 BO I 0.0000
-0.3010 BOI </s> -0.3010
-0.3010 BOOLOOK </s> -0.3010
-0.3010 CAMBA </s> -0.3010
-0.6021 DETA HEETOO 0.0000
-0.6021 DETA HITU 0.0000
-0.3010 EE </s> -0.3010
-0.3010 FETO </s> -0.3010
-0.3010 FOOA FUNEE 0.0000
-0.6021 FUA FUNEE 0.0000
-0.6021 FUA FUNI 0.0000
-0.3010 FUNEE </s> -0.3010
-0.3010 FUNI </s> -0.3010
-0.3010 HEETOO </s> -0.3010
-0.3010 HITU </s> -0.3010
-0.3010 I </s> -0.3010
-0.4771 INA BO 0.0000
-0.7782 INA BOI 0.0000
-0.3010 LILO </s> -0.3010
-0.3010 MANEK </s> -0.3010
-0.3010 NDANA TA 0.0000
-0.3010 NEETA CAMBA 0.0000
-0.3010 NGEOO BOOLOOK 0.0000
-0.3010 NITA CAMBA 0.0000
-0.3010 NOOSA FOOA 0.0000
-0.3010 NUSA FUA 0.0000
-0.3010 SABOAK </s> -0.3010
-0.3010 SAIBOAK </s> -0.3010
-0.3010 SAMBAK </s> -0.3010
-0.3010 SANDOO </s> -0.3010
-0.7782 SANDU </s> -0.3010
-0.7782 SANDU SANGGU 0.0000
-0.7782 SANDU SANGU 0.0000
-0.3010 SANGGU </s> -0.3010
-0.3010 SANGU </s> -0.3010
-0.3010 SAREE SANDOO 0.0000
-0.3010 SARI SANDU -0.2218
-0.3010 SEBOAK </s> -0.3010
-0.3010 SENDU </s> -0.3010
-0.3010 SERI SENDU 0.0000
-0.6021 TA NEETA 0.0000
-0.6021 TA NITA 0.0000
-0.3010 TOOTOO LILO 0.0000
-0.3010 TUTU LILO 0.0000

\3-grams:
-0.3010 <s> ANA FETO
-0.6021 <s> DETA HEETOO
-0.6021 <s> DETA HITU
-0.4771 <s> INA BO
-0.7782 <s> INA BOI
-0.3010 <s> MANEK </s>
-0.3010 <s> NDANA TA
-0.3010 <s> NGEOO BOOLOOK
-0.3010 <s> NOOSA FOOA
-0.3010 <s> NUSA FUA
-0.3010 <s> SABOAK </s>
-0.3010 <s> SAIBOAK </s>
-0.3010 <s> SAMBAK </s>
-0.6021 <s> SANDU SANGGU
-0.6021 <s> SANDU SANGU
-0.3010 <s> SAREE SANDOO
-0.3010 <s> SARI SANDU
-0.3010 <s> SEBOAK </s>
-0.3010 <s> SERI SENDU
-0.3010 <s> TOOTOO LILO
-0.3010 <s> TUTU LILO
-0.3010 ANA FETO </s>
-0.3010 BO EE </s>
-0.3010 BO I </s>
-0.3010 DETA HEETOO </s>
-0.3010 DETA HITU </s>
-0.3010 FOOA FUNEE </s>
-0.3010 FUA FUNEE </s>
-0.3010 FUA FUNI </s>
-0.6021 INA BO EE
-0.6021 INA BO I
-0.3010 INA BOI </s>
-0.6021 NDANA TA NEETA
-0.6021 NDANA TA NITA
-0.3010 NEETA CAMBA </s>
-0.3010 NGEOO BOOLOOK </s>
-0.3010 NITA CAMBA </s>
-0.3010 NOOSA FOOA FUNEE
-0.6021 NUSA FUA FUNEE
-0.6021 NUSA FUA FUNI
-0.3010 SANDU SANGGU </s>
-0.3010 SANDU SANGU </s>
-0.3010 SAREE SANDOO </s>
-0.3010 SARI SANDU </s>
-0.3010 SERI SENDU </s>
-0.3010 TA NEETA CAMBA
-0.3010 TA NITA CAMBA
-0.3010 TOOTOO LILO </s>
-0.3010 TUTU LILO </s>

\end\
